<NeuralNetwork>
   <Inputs>
      <InputsNumber>13</InputsNumber>
   </Inputs>
   <Layers>
      <LayersTypes>Scaling Perceptron Perceptron Perceptron Unscaling</LayersTypes>
      <ScalingLayer>
         <ScalingNeuronsNumber>13</ScalingNeuronsNumber>
         <ScalingNeuron Index="1">
            <Minimum>0.00632</Minimum>
            <Maximum>88.9762</Maximum>
            <Mean>3.61352</Mean>
            <StandardDeviation>8.60155</StandardDeviation>
            <ScalingMethod>MinimumMaximum</ScalingMethod>
         </ScalingNeuron>
         <ScalingNeuron Index="2">
            <Minimum>0</Minimum>
            <Maximum>100</Maximum>
            <Mean>11.3636</Mean>
            <StandardDeviation>23.3225</StandardDeviation>
            <ScalingMethod>MinimumMaximum</ScalingMethod>
         </ScalingNeuron>
         <ScalingNeuron Index="3">
            <Minimum>0.46</Minimum>
            <Maximum>27.74</Maximum>
            <Mean>11.1368</Mean>
            <StandardDeviation>6.86035</StandardDeviation>
            <ScalingMethod>MinimumMaximum</ScalingMethod>
         </ScalingNeuron>
         <ScalingNeuron Index="4">
            <Minimum>0</Minimum>
            <Maximum>1</Maximum>
            <Mean>0.06917</Mean>
            <StandardDeviation>0.253994</StandardDeviation>
            <ScalingMethod>MinimumMaximum</ScalingMethod>
         </ScalingNeuron>
         <ScalingNeuron Index="5">
            <Minimum>0.385</Minimum>
            <Maximum>0.871</Maximum>
            <Mean>0.554695</Mean>
            <StandardDeviation>0.115878</StandardDeviation>
            <ScalingMethod>MinimumMaximum</ScalingMethod>
         </ScalingNeuron>
         <ScalingNeuron Index="6">
            <Minimum>3.561</Minimum>
            <Maximum>8.78</Maximum>
            <Mean>6.28463</Mean>
            <StandardDeviation>0.702617</StandardDeviation>
            <ScalingMethod>MinimumMaximum</ScalingMethod>
         </ScalingNeuron>
         <ScalingNeuron Index="7">
            <Minimum>2.9</Minimum>
            <Maximum>100</Maximum>
            <Mean>68.5749</Mean>
            <StandardDeviation>28.1489</StandardDeviation>
            <ScalingMethod>MinimumMaximum</ScalingMethod>
         </ScalingNeuron>
         <ScalingNeuron Index="8">
            <Minimum>1.1296</Minimum>
            <Maximum>12.1265</Maximum>
            <Mean>3.79504</Mean>
            <StandardDeviation>2.10571</StandardDeviation>
            <ScalingMethod>MinimumMaximum</ScalingMethod>
         </ScalingNeuron>
         <ScalingNeuron Index="9">
            <Minimum>1</Minimum>
            <Maximum>24</Maximum>
            <Mean>9.54941</Mean>
            <StandardDeviation>8.70726</StandardDeviation>
            <ScalingMethod>MinimumMaximum</ScalingMethod>
         </ScalingNeuron>
         <ScalingNeuron Index="10">
            <Minimum>187</Minimum>
            <Maximum>711</Maximum>
            <Mean>408.237</Mean>
            <StandardDeviation>168.537</StandardDeviation>
            <ScalingMethod>MinimumMaximum</ScalingMethod>
         </ScalingNeuron>
         <ScalingNeuron Index="11">
            <Minimum>12.6</Minimum>
            <Maximum>22</Maximum>
            <Mean>18.4555</Mean>
            <StandardDeviation>2.16495</StandardDeviation>
            <ScalingMethod>MinimumMaximum</ScalingMethod>
         </ScalingNeuron>
         <ScalingNeuron Index="12">
            <Minimum>0.32</Minimum>
            <Maximum>396.9</Maximum>
            <Mean>356.674</Mean>
            <StandardDeviation>91.2949</StandardDeviation>
            <ScalingMethod>MinimumMaximum</ScalingMethod>
         </ScalingNeuron>
         <ScalingNeuron Index="13">
            <Minimum>1.73</Minimum>
            <Maximum>37.97</Maximum>
            <Mean>12.6531</Mean>
            <StandardDeviation>7.14106</StandardDeviation>
            <ScalingMethod>MinimumMaximum</ScalingMethod>
         </ScalingNeuron>
      </ScalingLayer>
      <PerceptronLayer>
         <InputsNumber>13</InputsNumber>
         <NeuronsNumber>64</NeuronsNumber>
         <ActivationFunction>RectifiedLinear</ActivationFunction>
         <Parameters>1.8944 -1.29889 1.90405 -0.22077 -0.291464 -1.4948 -0.500436 -0.5167 -1.88547 -0.598636 -0.273133 -0.556101 -1.66725 -0.402673 0.369642 -1.94343 -0.76716 1.09188 0.0301414 -0.0536675 1.29869 -0.94619 -0.716595 -0.737411 -1.3006 -0.13047 0.738707 -1.12467 -0.377516 0.294939 -0.189369 1.73517 -1.33321 0.847556 0.552628 0.880774 0.258551 1.83308 -0.518574 1.45956 0.213447 0.346574 -1.36188 -0.149535 0.369695 -0.18363 -1.07928 -0.726764 1.43817 -0.323922 0.145721 0.493858 0.441688 1.15449 -0.831096 0.108557 0.0750874 -1.46663 -1.96886 -0.449525 1.64668 -0.27803 -0.213369 1.74954 0.413307 -0.456479 -1.15473 0.245048 -0.41447 0.409639 -1.10854 0.0836079 -0.148796 0.423629 -1.49911 -0.155798 1.10325 -0.471966 3.50632 1.50822 0.584516 -2.31669 0.463909 -0.261761 0.486447 0.24255 -0.0503372 -2.29348 -1.03428 2.0218 -0.189756 -0.484803 -0.610257 0.192041 -0.233031 -0.869503 2.51242 -1.15666 1.4295 0.600865 0.473132 1.29666 0.202703 -0.0523081 0.122894 -1.51336 0.229703 0.0706999 1.74785 1.34831 1.54864 0.13151 0.663242 -1.5008 -0.425011 0.114037 0.278054 -0.246117 1.04756 0.274244 2.16104 0.109383 -0.226456 -1.41812 0.410034 2.36357 0.0136234 -0.769806 -1.14075 0.379237 -1.47191 2.0117 0.85465 -1.53855 1.35282 0.919126 -0.277192 -0.54123 -0.699567 0.935697 -0.204229 0.80525 -0.116325 -0.988456 -0.938404 -1.72847 1.11987 1.13732 0.771307 -0.398133 -0.505295 0.660452 -0.490974 0.116516 -0.131344 0.52202 2.31848 -1.01847 1.80122 -0.93033 -0.0953288 0.482453 -0.541107 1.06787 0.841383 -0.143439 1.49089 0.344846 -1.21644 0.573178 1.20738 0.00975519 -1.1483 -2.07103 -0.155485 -0.247485 1.69261 -0.220709 -1.52222 0.910817 1.20918 -0.907174 1.39395 0.385035 1.17693 -0.39693 0.75586 2.07341 2.19091 0.135392 0.114282 1.44895 0.536878 -1.54621 1.65623 -0.0603857 -0.877269 -2.09371 -0.300247 0.00655616 -0.645913 0.0446455 -1.58834 1.5404 0.33763 -1.38431 0.587647 0.473111 -0.392572 0.157991 -0.526907 0.203774 -1.40432 -0.18216 1.00292 -0.144288 -0.877315 -0.0214254 0.718634 0.578156 1.71263 -0.239405 -0.910639 1.16588 0.476113 -1.12585 -0.14673 0.791844 -0.0527384 1.34076 0.208772 0.151947 -0.879773 -0.393196 0.243303 1.14025 0.593458 0.409462 0.213498 -0.714532 0.402405 0.524172 -0.168507 -0.302286 -0.803324 0.671406 -0.509192 1.73952 -1.31731 1.70086 1.33197 -1.16167 1.17069 1.3758 -1.37877 -1.91144 -0.0343133 -1.52307 -1.41899 -0.864144 -0.305269 0.226474 -0.471119 -0.441398 -0.257804 -0.778971 -0.261163 0.467959 -0.328837 0.68479 -0.942055 1.14193 0.316348 -1.23281 0.0261366 -1.61894 -0.479812 0.0722183 0.20468 -0.130045 0.931816 -0.223238 0.646954 -0.404324 -1.90497 -3.08875 1.03646 -1.77937 0.880431 -0.58115 -0.534771 0.984383 0.862643 0.45419 1.34429 0.311592 -0.319255 1.08992 0.1196 -0.0850873 -0.331292 -0.779008 -1.76205 -1.14168 -0.6852 -0.303199 0.910779 1.64323 0.0675542 0.403154 -0.706424 1.95734 -1.33719 0.257445 1.37231 0.189666 -1.24915 -0.0093985 0.295712 -1.12082 0.0191358 0.0263849 -1.48436 -0.118622 -1.41239 -0.070795 0.936373 -1.86711 -0.380406 -0.43708 -0.194312 1.56667 0.994268 -0.313014 0.771763 0.00460482 1.17773 0.756442 0.482304 0.95177 -0.221143 -0.562958 0.853318 0.477445 0.109391 -1.01021 -0.127171 1.65133 0.353747 2.11803 -1.39662 1.3955 0.768772 -0.449384 1.24284 0.0310258 -0.475872 1.08872 1.68412 0.253836 1.43794 0.208607 0.66954 0.686515 0.626711 0.311435 -0.807882 -0.630109 -0.873349 -1.10799 0.564771 -1.15283 2.1148 2.58941 -0.590556 -1.09469 1.78028 -0.0457878 1.04068 -1.48349 0.0610082 -1.49881 -0.0704648 0.752229 0.722992 0.422024 -0.125145 0.115461 0.183051 -0.853709 0.0499515 0.507907 -0.491613 -0.139614 0.457328 -0.856455 -1.4853 1.14665 0.720426 1.26544 1.56122 -0.53716 -1.18297 0.0636978 -0.757242 -0.893208 -0.834291 0.0545831 -1.27366 0.439566 0.147788 0.679475 1.81271 -0.64092 0.135736 -1.89803 -1.4665 -0.458641 1.11966 0.0499629 0.133801 -0.764785 0.567018 0.462844 -0.0150326 -0.984955 0.0208242 1.10766 -1.55127 -3.53209 0.59848 0.530708 -0.18988 0.535044 -1.26558 1.05109 0.580446 -0.327637 0.0786838 0.537327 -0.0342793 -0.694501 0.0240605 2.52155 0.336086 0.0695457 0.365533 1.81646 -1.50891 -0.0227701 0.551332 0.596849 0.0184846 -0.686877 0.103647 -0.198187 1.29585 0.387775 -0.202357 0.795422 0.179285 1.76816 0.643765 1.07826 -0.0638474 0.761799 0.180989 1.13232 0.587763 -0.5649 -0.689053 -0.605088 -1.58898 1.41757 0.557573 -1.23415 0.702765 -0.244082 0.783789 -0.315355 2.17767 0.0838204 0.647392 0.648557 0.38348 1.11303 0.0333227 0.307334 -0.19541 1.3047 0.449124 0.162688 -0.729195 0.781609 0.384868 -0.174315 -0.826851 0.227019 1.69787 -0.752528 -0.133685 0.526074 -3.16069 -1.35276 -0.600123 1.66131 0.45115 -1.26144 -0.401342 -1.6147 0.910046 -0.381499 -0.247134 0.827543 0.0123166 0.0914854 -0.123794 -0.0670395 -0.711714 0.830351 -1.63603 1.11626 -0.406878 -1.01474 0.559765 -1.59428 -0.698652 0.454832 -0.381536 1.18992 0.288617 -0.571796 -0.00286618 0.0462777 -1.68661 0.63497 0.784451 0.825978 -0.362309 0.600542 0.906431 -0.150697 -3.05931 0.125949 -0.961321 -0.365779 0.459971 0.536001 0.300267 -0.814112 2.08576 -0.0198177 -1.30215 0.430925 -0.469982 -0.2514 0.83156 -0.559462 0.141837 -1.12156 -0.237967 -0.567842 -0.278649 0.0895189 -0.987483 2.01277 0.356512 0.692003 -0.144316 0.51617 -1.80962 -1.25268 0.273444 -0.446761 -1.27218 1.1 -0.99375 -0.695617 1.25651 -1.26426 0.629683 -0.487065 -1.15254 0.277221 1.84939 1.04813 -0.029684 -1.14302 -0.867757 -0.298443 1.03681 -0.489072 -0.0681371 -0.340342 0.263843 -0.0934048 -0.115165 -0.171069 -0.482427 -2.12953 -0.46306 -2.1433 0.805629 -0.588116 -0.333344 0.0603748 0.272344 0.24345 1.56633 0.178132 -0.729544 0.529261 0.548404 1.11125 0.0451408 -0.768224 1.87539 -1.36974 0.765302 0.613759 0.610719 -1.43732 -0.0613647 -0.722491 1.44229 0.603899 -1.3451 -1.13969 -0.55409 0.888145 1.38379 -0.0180897 0.939801 -1.20315 -0.291301 0.139243 1.30661 0.124549 0.843519 1.41553 0.735338 -1.15155 -0.300989 -0.545011 -0.692787 2.22703 0.120817 -0.295375 -0.248997 -1.22624 0.245362 0.042051 -1.02168 -0.533037 -1.56964 -0.256 0.323631 -0.85427 1.47278 0.441528 1.29547 1.54259 -1.00791 -0.812557 0.431621 -1.02773 -0.0860899 -0.0291 1.84067 1.05355 -0.0441614 -1.87045 -0.452433 0.861438 -0.378836 1.75236 0.766167 -1.35583 1.04221 0.705638 1.20672 -0.499752 -0.839863 -0.7133 0.283757 -1.7023 0.587556 -0.860169 2.79561 0.412131 0.872227 -0.877741 -1.17392 -1.38328 -0.237272 0.358885 -2.46143 -0.473089 -0.8975 0.77163 -0.165735 -1.65392 -0.303107 -1.14188 1.36496 0.109658 1.1171 -0.845969 0.895822 -0.0750051 -0.787283 1.24099 -0.11697 -2.15642 -0.481595 -0.537312 0.860029 -0.570691 -1.37245 -0.271801 -1.77636 -2.39075 0.927051 0.738311 1.19745 -1.82237 0.544282 1.64754 1.6155 -0.0416622 0.405139 0.499719 -0.889594 -0.0241073 -1.2248 -0.849508 -0.113773 0.581914 -1.02629 0.341424 -2.06729 -0.247922 0.350427 1.02032 0.899379 0.391866 1.55351 -0.795513 0.240899 0.344212 1.47503 -0.976155 0.497041 1.07218 -0.949166 0.800376 1.10277 1.70818 0.978271 -0.504812 0.871519 -0.782298 -1.38764 1.19688 1.82934 0.900806 -0.76936 -0.37638 -0.292504 0.246937 -0.370003 -1.06319 0.333956 0.306465 -0.865444 -0.898181 -0.101644 1.52913 -1.23947 0.0595807 2.74514 -0.806702 -0.0145739 -0.78376 1.1864 -0.318141 0.17442 -1.46191 -0.557762 -0.618485 -0.499017 -1.5539 1.00718 -1.85221 -2.32688 0.792127 -0.500653 0.0643407 0.891075 -0.378972 -0.927718 0.796224 -0.357089 1.42748 0.0056615 0.163892 -1.1638 -0.297736 0.0890533 1.3966 -0.350052 1.14436 1.14439 -0.215208 1.4244 -0.651996 1.76996 0.671718 0.146808 0.371346 -0.106764 0.269933 0.616202 0.545729 -0.26205 0.119063 -1.04694 -0.152594 -2.36866 0.179206 -0.146023 1.2684 -1.00478 0.6573 0.310267 -1.05158 0.912152 -0.45782 -0.0571819 -0.0228476 -0.92752 -0.908489 -0.161058 0.798039 0.311664 0.0652009 -0.493852 -0.425945 0.273185 0.584153 0.194126 -1.51496 -0.606095 0.405255 0.447715 1.24086 -0.0907726 0.166094 0.0310412 1.3496 0.276376 0.0284569 -0.817581 -1.14669 0.471547 -1.18031 -0.23945 0.0991822 -1.11126 0.176902 0.278002 -0.0883509 -0.0197702 -0.0223585 0.0629625 -0.624827 0.965133 -0.711754 -0.588657 -0.600616 0.496643 1.18229 -0.609355 0.772529 -0.859213 -0.015803 2.40983 0.439057 -0.12535 -1.28009 -0.685712 0.600046 1.43504 -1.38065 0.12907 0.821089</Parameters>
      </PerceptronLayer>
      <PerceptronLayer>
         <InputsNumber>64</InputsNumber>
         <NeuronsNumber>64</NeuronsNumber>
         <ActivationFunction>RectifiedLinear</ActivationFunction>
         <Parameters>0.564729 0.414792 -0.670242 -1.05723 -0.154339 1.28614 -0.618586 0.389596 -0.0512849 -1.23293 -1.73822 0.269847 1.44283 1.12736 2.19187 -0.601358 -0.177215 1.39476 0.503544 -1.9232 -0.563995 2.0559 1.48444 -0.234385 1.16864 1.69571 -0.507693 -0.409434 1.47825 1.65779 -0.763095 -1.42794 -0.700597 2.01974 0.114323 0.959187 0.668075 -1.10222 1.49411 0.739579 -0.952879 0.208587 1.19105 -0.278735 0.931173 -2.06153 0.731091 0.867931 -0.360409 -0.41685 -0.408641 -3.18691 0.243642 1.10123 -0.474387 -0.581193 1.11305 0.0405837 -0.750232 -0.465237 -2.54595 -0.804949 1.30621 1.05732 -1.94498 0.0145792 -0.0253819 0.728345 1.31155 0.0198998 1.69963 -0.371066 -1.19107 -0.721422 0.363696 -0.766089 0.326889 0.847495 -0.123847 -0.342613 0.669094 -0.162032 -1.12857 -0.169753 -0.0830123 0.0264783 -0.867702 0.355199 0.904473 0.400219 -0.622765 -0.026951 -0.730292 -0.148211 -1.99691 0.327028 -0.816443 -0.287349 -0.419274 0.251188 0.975462 0.969483 1.60972 -1.56918 0.852971 0.186517 0.196526 -0.961005 -0.573399 -0.458574 -1.1722 -2.65061 -0.185888 1.25044 -0.339545 0.535539 1.70477 1.05277 -1.30087 -0.0376567 -0.0732247 -1.35414 2.42753 -0.835087 0.234044 1.30922 1.46999 -0.0132604 1.2906 1.41559 1.12506 0.37437 0.370609 -0.711178 -0.751651 -0.443107 -0.75892 -1.80583 -2.16064 -0.0296293 -2.10679 1.2635 2.09522 1.15019 -0.660523 -0.730157 0.44368 1.04192 1.14186 -0.280824 -0.21638 -0.82216 -1.26618 0.810957 -1.37178 0.28772 -1.1142 -0.372975 1.71293 -0.286489 -0.0572909 0.0533927 -0.470848 -0.98793 -0.39117 -0.620694 1.39487 0.63453 -0.453031 0.470661 0.824667 0.997963 0.232873 -0.119924 -1.14755 0.869874 1.57627 -0.483442 1.27758 0.926181 0.463206 -0.223625 -0.849823 1.11245 1.12308 1.4768 -0.952267 1.17314 1.57631 -1.50336 -0.0221903 2.34246 -1.48363 0.559538 -1.75652 0.488022 -2.33987 0.767397 0.27321 -0.713689 -0.626054 1.02794 0.134929 0.219346 -0.822951 -0.571736 -0.593013 -0.132295 0.470842 -0.810297 0.186626 -0.0447528 0.243487 1.33173 -0.0882916 2.1039 0.44565 -1.07555 -0.87436 0.864193 0.327481 0.0496129 -0.600325 1.13556 1.67315 -0.174616 -0.48219 0.537017 3.30364 -0.291488 -0.905664 0.454966 0.10075 0.595736 0.648283 0.423878 -0.554928 1.70562 0.781153 -1.31914 0.941816 -0.0802677 1.19695 0.948883 -0.907613 -0.595536 0.938006 0.0711806 -1.30068 0.758471 1.94876 -1.12979 0.524916 0.850014 1.20777 0.129161 -0.909846 -0.0138171 2.6138 -0.881769 2.42833 0.537009 -0.395871 0.451783 0.00769923 1.48942 1.46878 -0.0307915 0.802138 1.1024 -0.0979248 0.188979 1.74744 0.962171 1.14562 0.0209142 0.511194 0.277386 1.36796 1.81793 1.06524 -0.526283 -0.534051 0.616897 0.333668 -1.05421 -1.09802 -0.616197 0.366587 0.450419 -1.10327 -0.0983354 -1.97225 1.79033 1.83329 -0.869443 0.461273 1.64284 -0.251586 0.714101 0.601391 0.235757 -3.32528 -1.25166 -1.131 -1.01759 0.615044 -1.03913 -0.46012 0.128077 0.336753 -0.113319 -0.903282 0.389094 -0.191025 -0.096165 0.00701241 -0.449855 -0.496956 0.724939 -0.061684 0.0186306 -0.16256 -0.463518 1.65624 1.80239 -1.00118 -0.320083 0.403269 1.46149 -0.140717 -0.75692 -1.03513 -0.758105 0.972522 0.0807793 -1.03136 0.230999 1.30502 -0.654142 1.20306 -0.52213 3.24211 -0.191654 0.759894 -0.645081 -0.418815 0.218161 0.610679 -2.13556 0.508291 -1.35848 0.283495 2.40647 1.17332 -0.418685 -0.421817 -0.852702 0.00852997 -0.705912 0.122797 -1.63808 -1.07574 -1.65907 0.596761 0.904471 -1.24432 0.598784 -0.566868 0.83775 -1.21048 -0.285167 -1.09209 0.268458 -2.14045 -0.980886 -0.570288 1.01979 -0.998151 2.02731 -0.00372366 -0.219478 1.82371 0.0922952 -0.875317 1.57761 1.77664 2.90769 0.0110421 -0.8849 -0.150332 -0.0814164 0.56692 0.617374 2.60423 0.533081 0.602458 0.0284504 -0.326051 -1.82553 2.08559 0.635519 -1.13651 0.982879 -0.0188539 -0.531484 -0.162852 -0.981372 -2.24356 0.598806 0.8159 -0.41405 -0.946587 -0.107818 0.0134551 -0.286318 1.18246 -0.638587 0.772783 0.00146166 0.969427 1.30902 -0.134843 -0.0351334 -0.114375 -0.52868 1.03788 -0.394597 0.417702 -0.250987 0.513208 -2.03988 -0.253015 -0.1113 0.305885 -1.15121 -0.162825 -0.560291 0.58505 0.0706205 -0.151887 -0.851757 -0.0765211 0.1263 0.10725 0.275322 -0.648725 -1.11071 -0.80405 0.18878 0.90193 -0.613191 0.24055 -1.49318 -1.01769 0.403788 1.24342 2.68751 -0.0593892 -1.47604 -0.22318 -1.72441 0.653035 1.45631 -1.60467 1.35561 0.240521 -0.153355 1.72795 -1.55742 0.823601 0.156374 0.824096 0.419944 0.602309 -0.950367 2.35184 -1.53619 -0.338711 -3.21562 1.05632 0.233366 -1.02023 -0.226734 2.52012 0.68775 -0.391391 0.902761 0.55196 0.282692 -0.977849 -0.73697 1.92655 -1.54914 0.575202 1.06886 0.346996 0.462095 -1.45042 0.602618 0.418831 -0.727085 -0.109624 -0.0964495 -1.21651 -0.165547 -0.00591598 -1.10761 -1.06829 0.900689 0.000199548 0.431843 0.931838 -1.09254 0.537103 -2.52838 0.403853 1.24927 1.32606 -0.490334 -0.345476 0.603289 -0.0873245 2.01662 -0.0488241 0.474506 -1.1174 -0.133739 0.22693 -0.703787 -0.679723 1.18341 -1.76242 -0.337899 -0.188206 -1.37932 -0.636869 1.62481 0.480344 0.141401 -0.725782 0.365169 -1.10546 1.68242 -0.919369 0.126141 0.945003 -1.35594 0.111965 -0.908294 -0.743442 0.504243 -0.474056 0.335616 -1.27431 -0.097819 -0.693201 0.68498 0.209696 -0.210496 1.40539 -0.351391 0.481812 -0.221388 0.527822 1.11906 0.656256 1.54194 -2.09245 0.745817 -1.00287 1.60287 0.316532 1.63377 -0.253552 1.63484 0.504877 0.554769 -0.00907687 0.122867 0.917817 -1.30685 -0.880066 -1.8814 -1.16258 -0.175065 0.911239 1.41978 0.765351 -0.157727 -0.227772 -0.584039 0.105792 -1.24436 2.46765 0.368485 0.83066 0.396937 0.037794 0.271322 -0.322683 0.96569 2.32421 -0.955392 -0.41985 -1.24534 -0.183564 -0.0623878 -2.81492 0.747317 0.229598 -1.81111 0.949845 2.61513 -0.308687 -0.183082 -0.36818 -0.603847 -0.200198 -0.478064 -0.582038 0.907016 -0.619413 -0.395954 0.630895 0.397217 0.0166061 1.71907 1.48073 1.10869 -0.527238 -0.323987 -0.486804 -0.0200777 0.0927892 1.89107 1.62787 -0.0240395 -0.356438 0.705423 -0.334462 -0.710348 -0.986736 -1.62001 -0.376575 0.0771063 0.40704 0.0812651 -0.561196 0.590281 -1.12232 -0.915137 2.02837 0.309114 0.26288 -1.28482 0.10252 -0.244608 -0.522011 -1.70847 0.738361 0.353953 -1.73085 -1.28961 0.5621 0.127412 0.0596805 0.447361 0.626393 -1.41231 -0.0372999 -1.4916 -0.948917 0.709075 0.322323 -0.467023 0.273555 -2.39585 0.319589 -0.433143 -0.119857 0.0527886 0.132348 -0.946739 -0.747715 -0.0499567 -1.14662 -1.63412 0.311235 -0.211871 0.100539 0.0844276 -0.0940597 1.45149 -1.35291 -0.21126 -0.791004 1.32238 -0.0151665 -0.440475 0.784703 -0.343494 0.212381 0.696902 0.0444757 -1.49463 1.15251 -0.20452 0.446964 -0.683451 1.83529 0.533832 -0.372823 -0.887557 -0.155834 -0.72773 -0.725575 -0.644571 1.44172 0.269025 1.13563 -0.355317 1.34844 -0.127898 0.79387 -1.80882 -0.772878 1.63781 -0.65176 1.67467 -0.569108 0.151492 -0.610054 -0.0501701 -0.397701 0.96689 -0.0516742 1.94033 -0.17086 0.600981 -1.55599 -0.562737 0.379087 -0.192177 -1.1232 -1.35688 1.17329 -2.49929 -0.344461 -1.51741 -0.723684 0.46648 1.36989 0.487765 0.737894 1.08191 -1.19719 -0.490465 -2.04474 0.272155 0.245121 -0.221776 1.34349 0.786316 0.0177918 -2.40744 0.414566 1.66787 -0.605082 -0.797473 -1.33755 -0.30742 -1.15763 -0.291411 0.722868 0.0635722 1.97392 0.034275 -1.08144 -0.774397 -0.706116 -0.894935 -0.356494 0.390895 0.852641 0.130507 -1.83616 -0.108322 0.549736 2.15185 0.407452 1.36202 1.58373 -0.483389 -1.4551 -1.00885 0.779394 1.16742 0.453634 -0.299983 -0.387894 -0.928742 1.24461 0.885869 1.32851 -1.14447 0.102542 -0.109414 -0.665727 -1.29248 -0.0270899 -0.999461 0.175355 -0.624913 -1.42708 -0.210003 0.925563 -0.912336 -0.986123 -0.553326 1.03035 0.532732 0.489753 2.57276 0.652172 -1.86278 -1.17555 -0.184418 -0.462715 0.395222 -0.199544 -2.49032 -2.02914 0.0261296 1.09343 -1.36694 -1.46855 -1.11322 1.30057 0.611872 0.892501 -0.0678147 -1.37187 -1.12372 -0.0714389 -0.134456 -0.229681 0.606813 -0.921925 0.190066 -0.348322 0.819111 -0.853995 -1.75226 0.238461 -0.0898407 0.544545 -1.16915 0.0357139 0.978077 2.84481 -0.0656169 -1.77992 -0.0620078 -0.652769 0.599007 1.2257 0.612269 -2.35199 0.0152236 1.92538 -0.90075 0.124175 -0.404287 0.881232 0.298411 1.06589 2.27939 0.878769 -0.61445 0.701072 1.50484 -0.884172 -1.31168 0.973602 -0.91571 1.16031 0.130933 1.72519 1.02916 1.58475 -0.431041 0.746193 -0.190223 -1.15842 0.534955 -1.07477 -1.05934 -0.213041 1.1554 -0.349902 1.87421 -2.13313 1.7333 -0.391404 1.02582 -2.03929 -0.804758 -0.938386 -0.440315 0.61943 0.815962 -0.139568 0.36731 0.956512 1.10962 -1.70118 1.10901 -1.27215 1.20265 -0.0653525 -0.364529 0.598018 -0.343682 0.0521733 0.147364 1.26161 -1.37955 1.60152 -0.251726 0.116511 0.76572 -0.462176 0.0824188 0.99713 -0.646291 2.18962 -1.06152 -0.242823 0.498402 0.589212 -0.102873 -0.0306736 -0.338826 -0.817435 0.360033 -1.61974 0.699821 1.23291 0.00631841 -1.37704 1.66684 0.308976 1.66579 0.191858 0.267512 -1.07142 1.0565 1.82854 -1.48638 -2.41817 0.267624 0.209714 -0.783691 -0.588208 -1.26485 0.394303 1.38933 0.333484 -1.27524 -0.675473 -0.32729 -0.987498 -2.01532 0.231733 0.139144 -0.193841 0.349588 0.914632 -1.56189 -0.237501 -0.521969 -3.24959 -1.8459 0.185092 -0.554545 -0.898911 -0.162736 -0.977059 -0.270675 0.282683 -0.835424 -1.34908 0.815457 -0.0364569 -0.59682 1.82521 0.677297 -1.85171 0.2056 -1.34985 -0.0814029 0.957314 0.622782 2.47511 -0.333386 0.946184 -0.523784 1.20584 0.644066 -0.0874237 -0.62535 0.333991 -0.26019 -1.82414 1.93339 -0.899846 -0.0642461 1.59402 2.26634 -1.30103 0.545125 -0.00991965 0.513857 1.03454 -1.63668 0.151068 -1.05364 0.335561 -0.0570171 -1.47609 -0.810042 0.704485 -0.527917 -0.761947 -0.474798 0.931549 -0.835904 -1.46309 0.49055 -1.21072 0.637798 -0.257937 0.231075 -0.337109 -0.0640736 -1.09222 -0.487212 0.104421 -0.159157 -1.4201 -0.823477 -0.156426 -0.422822 -1.59837 0.278234 0.616805 -1.24563 0.494933 1.07805 0.293424 0.424113 -0.196906 -2.60267 -1.91965 1.3015 -0.783046 -0.203514 -0.744258 0.341161 0.283957 0.168002 0.969005 0.492889 1.30848 1.01582 1.28713 0.208423 1.99643 0.837581 -1.00308 -1.26141 0.6889 -0.472657 2.35519 -1.38966 0.60187 1.5902 0.82631 -0.765662 0.859494 0.00142115 1.14746 -1.45333 -1.22508 -0.21155 0.886388 1.34242 1.22986 1.16738 -0.127234 1.35219 0.231194 -0.31684 0.456581 -0.211399 -0.893131 -0.550684 -0.244056 1.15443 1.38253 -0.251398 1.08609 -1.30662 0.797077 -1.60507 0.123631 -0.161893 0.357643 -1.11145 1.14687 -0.287829 -0.430735 -0.425525 0.827053 -0.332248 -0.799223 0.94259 -0.146419 1.72101 1.16365 1.88886 0.217408 -0.736148 1.31283 -0.608344 -1.00079 0.367518 -0.852177 1.70487 -0.249764 -0.422196 0.169235 -1.9879 1.48419 -1.39871 0.940499 0.221042 -0.60571 -1.61134 -0.535586 0.790009 0.279334 0.771813 -1.70491 0.957653 0.632416 -0.0100717 0.542748 -0.497118 0.847782 1.05635 0.883807 -0.774823 -0.224451 -1.24802 0.210692 1.40756 -0.892603 -1.44584 -0.846097 1.40531 0.414663 0.152503 0.466942 0.447351 -0.307263 -0.247986 0.401435 0.781045 1.32303 -0.692067 1.34195 -2.16615 1.40924 -0.988592 -0.676005 -1.15523 -0.205183 -1.36438 -2.64352 0.532519 -0.470343 0.554219 1.11769 -1.49861 1.35143 -0.299336 -1.24012 0.344592 -1.76389 2.035 1.18523 1.63104 -1.59214 0.160437 0.681818 0.870274 -0.100684 1.56552 -0.19685 1.53922 -0.599804 0.312304 1.17339 -0.686064 -0.276099 0.188863 0.117557 0.252616 0.592449 2.08824 -0.867824 1.04028 -0.312449 -0.468911 -2.38505 -0.0978009 -0.468065 -0.388307 -0.72491 0.522641 -0.49242 -1.50133 -0.556368 -0.50682 -1.56066 0.314741 1.06548 0.254139 0.0791202 -0.881391 -1.32481 -0.834635 -0.766694 -0.886028 0.581404 -0.379688 0.21264 -1.29077 0.615774 -1.10362 1.86627 -1.48201 0.123552 0.79516 0.801519 -2.56829 -2.72176 -0.758589 0.67682 0.866082 1.13521 1.83058 0.821894 1.29499 -0.74999 -0.284213 0.308916 0.424753 1.57105 -0.849111 -1.06238 -0.60147 -0.828891 0.403343 -0.411756 0.448366 0.300991 -0.0131877 0.137669 0.126152 0.433929 -1.1942 -1.56384 0.123654 -0.475022 0.559302 -0.983605 -1.25626 1.0735 -0.075041 0.502486 0.0883407 -0.531426 -1.22642 -0.129299 -0.585233 0.314332 -1.0749 1.89462 0.487867 -1.57925 -0.00744425 -0.365776 -1.2774 0.526202 0.291276 0.6668 -0.302548 1.87871 0.049992 0.0964883 0.238275 -0.403726 0.733007 -0.0259064 0.259364 -1.17385 -0.677484 -0.612505 -0.593089 -1.45671 0.788257 2.66213 0.711336 0.00636009 0.785338 -1.20378 0.283972 1.23883 0.283834 -2.00089 0.857614 0.0560596 0.0484045 0.240187 1.34349 -2.1927 0.818865 1.11202 -1.42275 0.960068 -0.761196 -0.0489129 -0.204396 0.642494 2.22396 -0.883879 0.775338 -0.767445 -0.0753852 0.132454 0.271834 0.0984003 0.831118 0.730881 0.662637 -0.471624 0.02721 -0.488668 0.53694 -1.51529 1.14978 0.245094 -0.753299 0.021799 -1.13145 0.671545 -0.774814 -1.07948 -0.32028 -0.0326254 0.364736 -1.38047 1.70154 -0.893129 -0.620215 -0.927702 -1.58235 -0.143865 0.934986 -0.465478 0.24548 -1.9492 0.320548 -0.772759 -0.195148 -1.37463 0.696962 0.755697 0.793269 -0.142228 0.466574 -0.400506 1.74636 -1.06415 0.0407241 -0.0342397 -1.68569 0.393709 -1.70298 0.861905 -1.04682 -0.900485 -1.65291 -0.463813 -2.00251 0.444377 1.35659 0.281621 0.173304 1.57044 -0.753628 -0.747755 -0.706567 -0.335065 0.903947 1.35942 1.96132 0.596604 0.118869 0.695221 1.21674 1.26598 0.803449 0.49105 -0.551526 1.46181 -0.573408 0.109396 -0.710146 1.49625 0.996412 1.06859 0.464328 -0.787884 -1.1083 -0.537529 0.350675 0.371215 0.19831 0.82112 -1.59903 -0.488757 -0.996033 1.47717 -0.680416 0.585691 -0.0243414 -0.981233 0.982634 -0.76645 -0.0264524 -1.78791 0.644892 -1.62219 -0.79682 -2.47155 -1.50268 -0.499417 -0.528325 -1.32944 -1.04263 -0.360009 -0.585319 -1.00859 -0.0292681 -1.2007 -1.04865 -0.831508 -0.762508 1.55916 1.2462 -2.34352 -1.84349 -0.569886 -0.995795 0.810672 -0.980724 0.444316 -0.896865 0.873351 -1.3205 -1.42156 -1.15366 1.14131 -1.28537 -1.23409 0.295664 1.39979 -0.844415 -0.592914 0.807307 0.519917 -0.00396468 -0.0837613 0.460445 -0.413394 0.255042 0.839947 0.38993 0.982549 0.0670195 0.0875129 1.14388 -1.25308 1.24087 -0.632339 1.32975 0.909059 -0.19247 0.246761 -2.46657 -0.424628 0.173115 -1.65707 -1.11897 0.249976 -0.636512 1.20131 -2.21831 0.312523 0.462134 1.71181 0.287035 0.737552 -0.859102 0.570787 1.21727 1.07149 -0.10526 2.24375 -0.351836 0.548908 0.45236 -1.12476 0.481467 -1.874 0.643106 0.23035 -0.524174 0.983533 0.641194 -0.900357 -0.36474 0.902754 1.10878 -1.50515 -0.423833 -0.277833 2.25593 -0.410845 -0.595584 0.902341 -0.806615 0.49859 1.63337 -0.0749715 -0.240994 -1.20979 0.312237 0.43438 0.0354229 -1.57451 0.112127 0.260823 1.27694 -0.0165775 -0.616282 0.214724 -1.10705 0.747487 -1.47549 0.321649 0.386136 -2.89776 -1.20836 -0.267525 0.503205 -0.854396 1.20343 -0.707589 -0.971096 -0.624782 1.28011 1.25418 -2.43162 0.629813 -0.655961 -0.158136 -0.24338 1.47432 -0.109312 -0.333794 -0.394255 0.644699 1.76041 -0.928548 0.448462 1.43591 -0.982998 0.900148 0.90293 0.485961 -1.71991 -1.04032 -0.827337 -0.216474 1.13475 0.832269 0.159215 0.154219 -0.542047 -0.984742 -0.0941491 1.28046 -0.952006 -0.648803 -1.82403 0.0690545 -0.450379 -0.0713833 -1.14703 -0.700585 0.168143 -0.498591 -0.734953 0.0936671 -0.484971 -1.4662 0.971533 0.545336 -0.00912217 -1.36895 0.223912 0.17702 -0.904021 0.673636 -0.81361 -0.293562 0.652669 -0.635027 -0.17498 -1.02059 0.520786 -1.64596 -0.188895 0.0408371 -0.16302 -0.800408 0.266818 -0.161826 -0.92593 -0.880086 0.0121177 -0.391928 0.160291 0.178464 0.829099 -2.34269 0.920332 1.21916 1.43762 0.792739 1.24034 0.454426 -0.786212 -0.822467 1.11388 1.10703 -0.0882964 1.51507 1.53175 -0.371601 -1.45025 -1.31114 -1.79396 0.828448 -1.93269 0.719771 -0.100351 0.560156 1.68848 -1.9114 -1.01803 0.2535 0.910727 -0.814808 1.45821 0.0375373 -0.627772 1.36057 0.893438 0.0479471 0.533311 0.401662 0.105733 0.900824 -0.986189 -0.240906 -1.46042 -0.836823 -4.18732 1.06364 -2.94599 0.640806 0.816866 -1.12216 1.20217 -1.64289 0.0903208 -0.650064 1.29614 -0.504732 -0.166954 0.720348 -0.641333 0.106047 -0.995715 -0.474803 -0.219902 -0.438668 0.954385 0.661797 -1.11296 0.689426 -0.326211 0.257617 -0.427496 -0.190758 -1.19475 -0.414706 0.606227 1.24189 1.8479 -0.587041 -0.529427 0.68773 0.441158 0.500379 0.206182 -0.889951 -0.349734 -0.466848 -1.09683 -0.681449 -0.932416 0.568342 1.6868 0.831253 1.16928 2.06879 -0.501221 -0.943576 0.236274 -0.861162 -0.92057 0.865554 -0.600519 -2.14588 -1.08485 0.0129444 -0.601072 -1.75027 -0.35227 1.51267 0.50726 -0.96294 0.305003 -0.683231 -1.3966 -0.638151 -0.00293362 2.06822 0.269672 -0.373095 -0.88013 0.985267 -1.43306 0.498902 -0.190449 0.99522 1.76028 0.21335 -0.0434452 -1.94071 -1.25839 -0.603593 -1.08657 0.940769 0.151371 0.228009 0.0549124 0.857075 1.22535 -0.367458 -0.584117 -0.269059 -1.90223 -0.599725 -1.72902 0.142927 0.619505 -0.145528 0.479277 0.730732 0.808858 0.744786 0.499349 0.778671 -0.88091 -0.123505 0.681648 -1.11064 2.16262 1.23802 -2.13933 -0.486012 0.141161 -0.98421 0.285257 -0.183557 -0.877671 1.64617 -0.316472 -1.33614 0.417914 -0.737949 1.32032 -0.0879441 -0.200294 -0.0647545 -0.423798 -1.66608 -0.65055 0.743875 -0.643496 1.42635 -0.319523 -1.04775 -0.406586 1.22808 2.78737 0.974201 -1.13718 -0.110042 -0.924074 0.02126 -0.881726 1.44225 -0.763042 0.924503 -0.295719 1.28511 -0.127663 -0.176186 0.195865 -0.128646 -0.322075 0.100707 0.854388 0.277244 0.931308 -0.0313511 1.53399 0.400884 2.73295 -0.760705 0.1585 -0.569503 -0.0591159 -0.433481 1.78242 -0.419813 1.84232 -0.748589 -0.932086 -2.47595 -1.81916 1.54406 -0.0983087 -0.421701 1.51868 -0.242303 0.896414 1.50119 -1.40835 1.44026 0.276639 -0.173129 -1.09795 0.0668517 -1.00071 -0.737522 -0.0733178 -0.114606 0.0133442 1.21213 0.192026 -0.430434 0.470919 -1.65962 0.830691 -0.798115 0.940599 -1.12205 0.249602 -0.166341 0.0706094 -1.63748 0.911272 0.679979 -0.947208 0.831808 0.372882 1.68072 1.05931 0.508277 -0.75757 -0.219076 0.21863 -0.301083 0.435544 -0.912436 -0.374023 0.751362 -0.330238 0.0419711 -0.0245462 0.32147 0.0723337 0.951939 1.12649 -0.224589 2.93229 -0.0404967 -0.700027 0.207793 1.36896 -0.116547 0.913411 -0.105358 0.879055 -0.000150989 0.758052 -1.87534 1.09294 -2.13242 -0.845007 -0.159415 -0.139978 0.140427 0.689044 1.03611 0.551468 -0.27024 -0.713665 0.078021 0.230179 -0.915479 0.583024 0.396303 1.1616 0.104944 0.36548 -0.94565 0.158938 0.722333 -0.769024 1.28173 0.107731 -0.509593 2.21448 -0.609374 -0.647202 0.383638 -0.630113 1.17666 0.305077 -1.23312 -0.898833 0.256378 0.0111479 0.622296 -0.424537 0.34135 0.69053 0.600192 1.41769 0.828052 -0.501063 -0.942889 0.209854 0.252215 1.73461 -1.72393 -1.15098 -0.000445724 -0.419036 -1.25575 0.885664 -0.310687 -0.124054 -0.902346 -0.351788 -0.617789 1.48632 -1.57909 1.65319 0.385117 1.05432 -0.673531 0.476476 0.910755 -0.317754 -0.245007 -1.6214 0.663864 -0.363691 0.170957 -0.895655 -0.62086 0.0620265 0.693019 -1.61839 -1.00872 -2.20843 1.53146 -1.2908 0.131456 0.291426 -0.48068 -0.642388 -1.14764 0.465678 0.3367 0.0580422 -1.50908 -0.801485 -0.408215 -0.0652936 -0.940784 -1.47487 -0.259439 0.686703 1.04909 0.500092 0.673368 -1.44767 0.759012 0.059495 -0.572403 -0.210538 0.353788 -0.479456 1.31126 -1.51835 0.595378 -0.500009 -0.275922 1.38322 0.978849 -1.08856 -1.45644 -0.572202 1.07541 -1.14864 1.3418 0.218088 0.627546 -0.417979 -0.79416 -1.06669 -0.577497 0.759353 -0.00633702 1.02457 0.875637 1.88391 -0.136542 -0.469769 -0.142374 0.911095 0.238467 -1.41805 0.0107208 0.939522 0.662952 0.0622823 -1.51246 0.578903 -0.575455 -1.36709 0.0252236 -1.43871 2.03947 0.0695959 0.0202419 -0.353378 -0.896271 0.638858 0.796101 0.272785 1.02261 -0.986335 -0.181556 -0.474446 0.481991 -1.4205 0.233822 -0.73177 0.134179 -0.841201 -0.0265523 -0.133898 0.253603 0.717308 0.0860423 0.6012 1.2663 0.307415 -1.56566 -0.0237621 0.669851 0.474903 0.585229 -0.914708 -0.564233 -1.40345 0.71244 1.28553 -0.408187 0.588963 -0.0677342 0.871248 -0.333333 0.494603 -0.164097 1.06884 -0.634037 -0.244124 -0.0820504 0.0646725 0.428554 -0.531119 0.148141 1.6804 -0.11274 -0.551545 1.22488 1.4958 -0.508429 1.02406 0.0348319 1.20448 -1.444 0.116574 -1.78786 0.725309 1.77254 -1.47064 -0.0197086 2.54261 -0.903845 -1.06641 0.451512 -1.65079 -1.76342 0.0914886 1.0869 0.142591 0.682887 -0.0123106 0.054375 1.28597 -0.756059 -1.23456 0.513467 -1.19508 0.887936 -0.315829 -0.997075 -1.59591 1.0644 -1.18324 -1.53431 0.645451 0.800799 0.70698 0.500218 1.49485 2.17549 2.1174 1.56868 -0.134338 0.772978 0.850197 -1.90013 -0.296472 0.189293 1.66191 0.418938 -0.425089 1.37789 -2.51508 0.812132 -2.40012 0.919301 -2.25324 -0.550901 -0.371337 1.52111 0.534562 -1.19312 -0.37513 2.80283 -0.90028 0.492839 -0.142231 -0.554942 0.281756 -1.63564 -1.13632 0.121575 0.893455 1.31676 -0.548374 1.08436 1.27652 0.811063 1.29849 -0.616237 -0.53208 0.0736249 -0.424588 -0.198272 1.25615 0.78602 -0.321118 0.620361 -0.15504 1.62431 -1.01883 0.00139969 -1.42978 0.137942 -0.604762 1.38747 0.120302 -1.11275 0.0945348 -0.833446 0.600567 1.58291 -0.482497 -0.851962 -0.581707 0.494354 0.174474 0.244022 0.892243 -0.14599 -0.294412 0.278658 0.719238 -2.56615 -0.130884 -0.178417 -0.719396 0.527806 0.723817 -0.19885 -0.217661 0.396906 -1.51866 -0.611027 -1.99394 0.680896 0.82888 -0.773142 -0.909037 -0.668067 0.379972 -0.877153 -0.139495 -1.3833 1.62512 1.57123 2.69803 1.08253 0.516283 -0.0718038 0.130949 -1.07769 0.602697 -0.045857 -0.705663 0.300891 -0.681242 -0.180642 0.929903 -1.09487 -0.565531 0.93876 -0.467366 -0.42275 -0.420763 -0.701966 -0.175588 1.08572 -2.33442 -1.70957 -1.02176 0.488368 -1.1049 2.29694 2.18418 0.0111331 0.189395 -0.294958 -0.700019 -0.700548 -1.49514 1.14731 -0.0587522 -1.35026 -0.354224 0.593828 1.05566 -0.55573 -1.84928 0.133507 -0.177205 -0.0963533 -1.68217 -0.986302 -1.5065 -0.838755 -1.04958 0.703598 0.691259 -1.13061 -0.146599 0.186175 -0.471985 1.23168 0.0765664 -0.760162 0.00500936 0.335244 0.825436 -0.437759 0.0660993 -0.39708 0.687249 -0.0563444 -1.06581 2.10325 0.440472 1.44592 0.532274 1.43082 -1.132 0.399578 0.418649 1.26687 0.953699 -0.766567 -1.50633 0.395159 -0.0915382 0.866415 -0.453202 1.02707 -0.576386 0.323089 -1.53864 -0.541575 -0.717215 0.0897955 1.45133 -0.856157 -0.625196 -1.54171 1.50053 0.506656 0.786055 0.474192 1.66926 -1.59515 -3.35416 1.86745 -0.581449 0.0157149 -0.864316 -0.399308 -0.423629 -1.35026 1.74237 0.336418 -0.552173 -0.585164 2.79555 0.0961925 1.47219 0.608939 -0.084163 -0.032029 0.121612 0.832246 -1.1272 -0.283521 0.544876 1.05348 1.36629 -0.00117892 0.361372 -0.425456 -0.755965 -0.132201 -1.87066 0.490876 -0.6655 0.160126 0.582863 -0.51272 -0.840487 -1.0706 -0.659038 1.56104 -0.0310844 -1.80054 0.548052 0.000446901 -0.014867 0.0183085 1.88855 -2.31102 -1.35899 0.212316 0.541676 1.26514 0.194118 -1.37515 0.236795 0.57732 0.0445714 -0.0636332 -1.56011 -0.0290686 -2.00135 3.20159 1.05989 1.97128 0.75761 0.691846 -1.22347 0.718823 0.224867 0.0728244 -1.14181 -0.295562 -0.568674 -0.534192 -0.913706 0.315187 -1.05168 0.451566 -0.377957 -0.694446 2.118 -0.0436372 -2.74762 0.602482 -0.720309 0.80021 0.673487 1.22551 -0.371123 1.48153 0.653794 -0.241503 0.109041 -0.834207 -0.681126 1.11616 0.0274905 0.564028 -1.43153 -0.0687638 1.11982 0.323951 0.315902 -0.849677 -1.08585 0.00166923 -0.63588 -0.310742 2.01136 0.935758 1.33196 0.541207 0.551068 -0.695201 0.665292 -0.024557 1.19108 -1.09277 -0.331995 0.000451187 0.888892 2.7637 -0.0348751 1.07311 -1.6162 -0.191644 -0.181159 -0.0685777 -0.297587 0.793227 1.02791 -0.424952 0.458414 -0.176388 -0.288618 -0.000853611 -0.254941 1.38034 0.0747484 1.32855 -1.77424 0.430874 -0.72336 0.102323 0.331493 -1.32088 1.37783 -1.04764 0.547284 0.735499 -1.79309 1.18872 -0.163665 -0.319553 0.0240418 0.717301 0.129272 0.396123 -1.11395 1.13756 -0.226776 2.30085 -1.28041 -0.0374326 -0.575828 -1.48041 1.47444 -0.657925 -0.23303 -1.06541 0.168108 -2.70671 0.748608 -1.44234 -1.66483 1.64314 0.999397 -1.24958 0.423761 -0.455839 -1.31928 1.11568 -1.7198 0.546537 -0.878968 -0.442314 -0.0877581 -1.24542 -1.49828 0.424399 -1.33944 -0.229087 0.00895807 -0.713345 -0.527011 0.941782 -0.903354 -0.833985 -0.357781 0.71033 -0.687815 -0.288902 0.745096 -1.39034 -1.09506 0.944742 -0.934882 -0.378811 0.544533 1.31757 -0.778357 1.04202 1.07745 0.36243 -1.67831 -0.946483 0.925456 -0.80406 -0.353183 -0.867861 -0.514174 0.313123 -0.619329 1.49297 0.66112 0.209441 1.9902 -0.431398 -0.68369 -0.243071 1.5145 -0.703127 -0.286554 0.969488 0.283183 -1.82017 0.219412 -0.419153 2.67902 -0.311328 -0.220931 -0.518746 -0.480191 0.330731 -0.857653 -1.04799 -0.0832278 -1.14068 -0.301451 -3.47232 0.421835 -1.01854 -1.01958 -0.919657 0.351608 0.321611 -0.447086 0.145826 0.858169 0.26665 1.648 0.30785 1.65932 0.202126 -0.340753 -0.462868 0.264696 0.0796746 0.041604 0.890894 0.160746 0.867163 -0.547903 -0.813571 0.704923 -0.803198 0.0940671 0.615925 0.0582424 -0.586073 1.76722 0.819522 0.337405 -1.01149 -2.17642 0.430283 1.33732 1.13449 0.31986 -0.194746 -1.25426 -0.339869 0.887432 -0.523782 1.07007 -1.46701 -1.20159 0.36781 0.135829 -0.346242 -1.93385 1.53498 -2.04055 0.241196 -0.187035 0.809203 -0.647381 0.705033 -1.23778 -0.994724 0.225193 1.37647 1.82498 -0.155555 0.745605 -0.479416 0.950457 1.78854 -0.645979 -1.52256 -0.996613 -0.169218 -0.164856 -0.414747 -0.028825 -0.581634 -1.27765 -1.19422 -0.110213 -0.922873 0.0548277 0.454347 -1.1091 1.47398 -0.0649404 -0.0586458 -1.15559 1.35559 1.37849 0.0822352 0.384338 -1.25892 -1.39916 1.4666 -0.656365 0.434518 0.545158 -0.921229 -1.42412 -1.29874 1.91548 -0.205305 -2.11496 0.33758 -2.0715 0.293011 1.37565 0.360609 0.0492183 0.809907 -0.843007 -0.974683 -0.70118 0.909385 -0.984869 -0.647451 3.23369 0.524817 -0.183285 1.1707 0.411576 0.130012 -0.614773 -1.1857 2.262 1.68796 -0.552098 -2.04287 -0.900055 0.131909 -1.17008 0.0501569 1.97511 0.964568 0.148099 -0.709682 -0.415768 0.307345 0.422827 -0.351703 -0.255189 1.52587 0.653214 1.67725 0.660888 1.35832 3.22318 0.297464 1.22456 -1.05029 -0.927815 -1.10247 0.296776 0.427558 -0.4813 -0.0285924 -0.686632 0.363981 0.248573 -1.08983 -0.52962 0.0690594 -1.67791 -1.29716 -2.01897 1.40887 -1.50166 -2.76067 -1.01748 0.334039 -0.89427 0.492934 -0.579146 -0.0105522 0.783847 0.568358 1.6889 0.171253 -0.224318 -0.0521321 0.0346644 -1.27876 1.32438 -0.834185 1.28161 -0.4605 0.432578 -1.33193 0.524866 -1.88061 0.91047 -0.235477 0.955411 -1.4502 2.79586 0.348849 -0.46081 0.676628 -0.419582 0.299284 0.136286 0.0831507 -0.281953 -0.133017 -0.800323 -0.0793485 -0.86025 -0.878279 -0.353285 -1.12297 0.1746 -0.457307 0.238118 0.911907 0.430906 -0.878746 -0.236039 -0.444156 0.0129121 0.992311 1.15994 -0.614034 -0.347622 -1.33647 -1.11829 0.92243 -0.370536 -0.657744 1.62664 1.89477 -0.863459 0.325701 -0.988607 0.387925 -0.172396 -0.803561 -0.349427 -1.75342 -0.579332 -1.05629 0.990627 0.411356 -0.123245 1.73209 0.398805 0.0834662 0.533012 0.125749 -2.30736 0.847923 0.640796 0.19488 0.410847 0.153687 0.239183 0.313939 -0.89404 -0.626649 -0.862257 0.679537 0.371664 -0.756232 0.323053 1.09679 -1.87863 0.646158 -0.437085 -0.230952 0.726499 0.79268 0.541525 0.881414 -2.22603 0.275248 -1.28562 1.16109 0.584076 0.40956 0.275163 -0.949108 0.534001 -1.79274 -0.159901 -1.54623 -0.393818 -2.43958 0.321489 2.09752 0.358585 -1.17615 0.0343946 -0.102837 -1.13685 -0.526931 0.244416 -0.872794 -0.73347 -1.00577 -1.23555 1.24349 0.871771 -2.14276 0.413745 0.461412 1.50163 -0.193947 -0.944332 -0.46945 0.668613 -1.26152 0.532284 0.797831 -0.0680006 1.91673 0.67122 0.720087 -0.787569 -0.269978 -0.473381 0.186572 -1.823 0.143718 0.0586054 0.226776 0.375796 0.331672 0.0361431 0.164462 -0.69259 0.466835 -0.249303 0.0480557 1.15797 0.857622 0.602457 -1.43229 0.309037 0.532725 0.924173 0.245516 -0.941556 0.295628 -1.61484 -0.951416 0.419794 -0.0724111 0.24611 0.162791 -0.651918 0.570512 -0.194358 -0.379476 0.744538 1.22875 -0.115967 0.22603 -0.807438 -0.521882 -1.01358 0.927801 0.29252 1.42708 1.01113 -1.13349 -0.672316 -0.366516 -1.30852 0.208547 -2.74375 0.510319 0.806721 0.502613 -0.260308 -0.178127 0.215891 -0.689897 0.245782 0.272351 1.60104 0.129491 -2.05026 0.678051 0.808566 -1.40054 -0.392346 -1.43058 -0.206778 -0.949459 0.4706 -0.905236 1.21392 -0.129151 -0.0343519 -0.577787 0.11799 -0.938346 0.4115 -1.04975 -0.0344411 0.310532 0.318392 2.12551 1.75996 0.176488 -0.677706 0.757166 -0.125276 1.73463 0.984234 0.885012 1.83353 0.934786 0.92115 0.784253 -0.200062 -0.220418 -1.28847 -0.617332 0.357458 -0.135187 0.116724 -0.852712 -1.231 -0.194642 -0.526293 -0.20229 0.266213 -0.816611 -1.43322 0.126577 0.74855 0.0866928 2.0751 -0.16304 -1.0254 -0.191627 1.03329 0.448997 0.643936 -0.542359 0.0847972 -0.483427 -0.648152 -1.13928 1.48679 -0.173288 -1.01025 -1.66912 -0.017198 -0.281013 0.593632 0.356588 0.764383 -0.250942 0.672954 -1.25704 -0.0894489 0.166431 0.958661 -0.442416 -1.19179 -0.286755 -0.878856 0.134536 0.789645 -0.741594 0.993119 1.03553 0.888628 1.56637 -1.00852 1.40218 -0.864012 1.98437 -0.0408431 1.67661 -0.324532 1.10324 -0.587604 0.67596 -0.231204 1.20115 -0.805604 1.16877 -2.03529 -0.983179 -0.985769 0.460115 -0.564664 0.905829 0.0198816 -0.210328 0.0682255 0.906196 0.621394 -0.943999 -0.0768309 -0.250113 0.3328 -0.401089 0.947807 -0.730022 2.00929 0.114204 0.986365 0.4815 -0.607528 0.17546 0.664355 0.638383 -0.438484 -0.395065 0.337043 -1.53696 0.00296481 -1.14841 0.54638 0.274021 0.684031 -0.303393 -1.68421 -0.532332 -0.645382 0.0972405 0.171738 -0.802658 -2.24946 -0.848505 0.660884 0.859399 0.800612 -2.14141 0.76229 -0.726721 0.791612 -1.6238 0.231769 0.959654 0.774422 -1.15098 -1.12677 0.361624 0.629513 1.32791 -0.187942 -0.049864 -2.41327 0.810295 -1.37774 -0.65759 0.0080951 -0.59078 -1.30913 -1.48972 -1.42735 -0.984084 -1.19423 -0.285377 -0.0403776 -1.38098 -0.703853 -0.0627401 -0.168913 -0.796621 0.135829 0.758574 -0.959567 -1.01267 -0.467364 -0.383717 -1.05043 -1.00955 -0.947657 -0.81984 -0.213706 -0.919634 0.229371 -0.0924808 -0.161774 1.25871 -1.35701 -0.463432 0.456276 0.988275 -0.318523 -0.669968 -0.396006 0.283629 0.696437 -1.67288 -1.36243 1.20468 -1.56943 0.668634 0.266498 -0.0552393 0.678093 0.31815 0.84611 0.129269 0.120307 0.268114 -0.316909 0.0326638 -3.15101 1.18184 -0.944529 -0.817253 0.953309 1.0185 -0.397261 2.27407 -0.231406 0.922091 1.38576 -1.64209 1.24218 0.544814 0.0901963 -0.813812 0.122194 -0.807245 -0.671082 0.700855 -2.00729 -0.0731257 1.02457 0.746411 1.49487 -1.20659 -0.26819 -0.862764 0.801592 0.403674 -0.781074 -0.191393 0.393242 -0.323187 -1.90796 0.45029 1.16731 -0.630535 0.356306 -1.41523 0.607324 0.995633 -0.243946 -1.04825 1.91433 -2.28157 1.78458 -0.0284599 -0.75044 -0.847839 -0.316259 -1.75694 -0.695398 0.622385 -1.66527 -0.311651 -1.75149 0.0475639 0.0903503 -0.781536 -0.586692 -0.255722 0.097453 -0.291934 -1.18375 0.482065 -0.917009 -1.05206 0.108542 -1.17949 -0.110809 -0.843848 -1.04128 0.410313 0.402213 0.138928 -1.3735 1.42039 1.12563 0.291315 0.859389 -1.16576 -0.458995 0.929539 -0.404844 -0.180383 0.137838 -1.30535 1.4456 -0.404059 -0.485052 -0.474764 -0.281152 -0.0485533 -2.77393 -0.869557 1.37797 -0.256687 0.200807 -1.67195 0.188767 1.09543 -0.925904 -0.473619 0.156014 -0.771222 -0.0105579 0.0339851 0.291368 0.151136 -1.20506 1.81217 -0.402589 -1.202 -0.0503978 -1.01479 -0.72955 3.34356 1.29911 1.76256 -1.27901 0.361076 0.538292 -0.678655 -0.458263 1.0535 0.0934106 0.711209 -2.18901 -0.794993 0.868745 -1.17007 0.615788 0.672704 1.08623 -1.4777 1.92722 -0.732053 -0.830346 -0.817841 -1.19046 -0.715139 1.50569 0.412168 -0.432538 1.84655 0.619905 0.130388 0.0638371 1.18358 -1.38221 0.640661 0.395573 -0.148271 0.596696 1.34237 1.44143 2.61143 -0.498304 0.781685 -0.117248 1.63148 0.338174 -0.418782 2.02063 0.231939 -1.51822 0.417526 -0.294644 -0.253348 1.46116 0.515908 -0.784471 -1.02693 0.257382 0.230224 0.0684769 0.136646 -0.41254 2.31129 -0.322485 -0.563499 -0.322878 -2.28122 0.107395 -1.37023 1.43215 -3.08009 -0.776482 -0.276722 0.906358 1.33223 1.32791 0.337601 -0.840559 0.00842488 0.622783 0.130094 0.106228 0.916685 -0.390876 -1.92356 0.516964 -0.649521 0.39815 0.503823 1.39831 -1.00679 1.30909 1.44939 -2.70917 -0.927498 0.114075 1.37009 0.872736 -0.547055 -0.337862 -0.767991 0.6152 0.080196 0.456883 -0.641221 0.642493 0.906349 -0.460158 -1.16315 -0.96143 -0.621206 -0.0351543 0.702276 0.48544 -1.4981 -0.0432887 -1.12843 1.00428 -1.65199 0.145509 1.24069 -0.684799 -0.0713273 -0.922827 -0.662535 -0.417804 0.702239 1.03725 0.640028 0.0607413 1.68171 -0.131624 2.35894 0.688295 0.165951 0.563287 -0.86502 -0.0434147 -0.720154 0.937772 0.654256 1.62906 -0.923986 1.35006 -3.14704 1.30438 2.09508 0.436642 -0.745666 -0.642953 -0.197684 -1.37494 0.992621 0.0195594 1.65863 -0.251902 0.0877999 -0.722452 -0.082116 1.42248 -0.712457 1.2819 0.444696 0.166416 -0.504982 -2.35556 0.520018 -0.936998 -0.474988 -0.456785 1.66422 -0.148657 -0.79484 -1.14737 -1.43155 -0.131048 1.49511 0.32501 0.718249 0.923682 -1.56375 -2.28042 0.364071 0.859996 -0.69197 -0.0107699 -0.471288 1.56093 0.026042 -1.73673 1.61008 0.00382473 1.11858 -0.226362 0.76409 -0.292213 2.79123 -0.67897 0.170954 0.82882 -0.441124 -1.04648 -0.554988 0.177809 1.30798 0.645704 0.917124 0.285079 0.26528 2.47992 0.705711 -1.82712 -0.398365 1.02548 -0.965219 0.425788 -0.773388 1.49718 0.490288 -0.403746 -0.0483348 0.291943 -1.41054 -0.925459 -0.252363 -0.42915 -0.0178232 0.774905 0.361446 0.856219 -0.307248 0.0471293 0.219554 0.863819 -0.945887 0.707303 -0.254766 0.0151558 1.76957 0.891883 0.114002 -0.349475 -1.01587 0.295045 0.656241 -0.024934 -0.483265 0.66555 0.810073 0.785043 0.684381 -1.09854 0.784201 -0.529608 0.0435233 1.43616 0.236045 0.325178 -0.167888 0.564363 -0.166566 1.62148 -1.86486 -1.35768 -0.514092 -0.442386 0.801043 0.720187 -0.531479 -1.97989 2.38386 0.0935097 -0.205588 -1.03829 2.24459 0.0180387 0.269226 0.792213 -0.57817 -0.546201 -1.2506 0.758733 0.371257 1.13328 -0.33659 -1.40034 -0.14063 0.284543 0.734012 -0.536358 -0.33067 -0.887551 -1.94994 -0.494196 -0.51413 -0.294127 1.28582 2.13853 -0.271809 1.1512 -1.19366 -0.363923 0.424792 0.47047 0.832289 0.929342 1.07585 0.445241 -0.0826325 -0.300519 -1.61213 0.691357 -0.0395544 0.540977 1.47979 0.900967 -0.768745 1.78067 -0.12883 1.3229 -0.195234 1.17062 2.20484 0.116157 -0.342456 0.169972 0.164564 -1.27972 0.182357 -1.87581 -1.89342 -0.318293 0.625654 0.516696 0.110121 -0.281795 1.32349 0.227058 0.49365 0.00800967 0.116782 0.133917 -0.744312 -0.596922 -0.145863 1.07921 0.911984 0.0934921 1.14822 -0.0640835 0.0615133 0.175289 0.554422 0.799789 -0.288575 0.204764 0.177641 -0.129906 -1.2671 0.8034 -0.219961 0.976102 0.373056 -0.268823 0.919511 1.12035 0.335695 -0.75462 -1.26921 0.267859 -0.72976 -1.02841 1.1726 -0.699615 1.78688 -0.164839 0.713657 1.06225 -0.364727 -0.0312652 0.424714 -0.168799 0.0798593 -0.0622523 -0.0186374 0.942287 0.0422383 -1.79581 -0.379057 0.700995 0.523406 0.0897082 0.918116 -0.312459 1.67076 2.38882 -0.557666 1.18321 -0.635528 -0.493771 -0.89828 -0.128103 -0.116927 -0.533765 0.39447 0.375978 -0.113345 1.11561 -0.31262 0.647618 -1.09479 1.13535 -0.754355 0.130307 -0.379924 -1.70859 0.041975 -1.28236 0.0399797 -0.697359 -0.350318 0.424778 -0.738868 -0.769353 -0.32538 -0.943198 0.0832785 0.993051 -1.89476 -0.223941 -0.531289 1.88721 0.806666 -0.363157 0.382906 -0.869741 2.67286 -1.35342 -0.338815 -0.33429 0.988942 -1.20274 -0.353408 0.0720874 0.833365 -0.0367075 -3.05688 -1.1567 0.623138 -1.65125 0.482901 0.244251 0.283061 -2.18179 0.740945 -0.787916 -0.63169 -1.34218 1.34418 -0.709599 1.03433 -0.501073 -0.22837 0.125581 0.219491 0.499751 0.529002 -0.388803 -0.58016 -1.11637 -0.295976 0.94366 -1.63805 -0.294262 -0.0286276 -0.521529 -0.459724 -1.9619 0.629916 -0.625541 -0.249121 -2.23112 -0.645258 1.03004 -0.16936 0.529895 -2.28093 1.69867 0.0166711 0.105377 0.799047 2.80025 2.45516 -2.7926 -1.17683 1.32817 0.765118 0.210826 1.15653 -0.146698 -0.913306 -2.56209 1.23641 -0.72309 -0.823068 -1.31501 0.986272 0.902174 0.339084 0.349434 0.634711 1.03821 0.938746 -1.09839 -1.23313 0.0935137 -0.715636 -0.575624 -1.96356 0.499034 0.830205 -2.15098 0.657435 0.650407 -1.3004 0.00291847 -0.552286 0.0407979 0.225502 1.15997 3.6608 0.762229 1.27017 1.50047 0.236644 -0.58696 -1.48833 0.00721928 0.410823 0.813334 -0.472981 -1.80439 1.42816 1.83334 -0.264915 -0.262964 0.0542392 -0.0292322 1.98688 0.372276 -0.37356 -0.721198 0.0753732 -0.651498 -0.990074 -0.0855095 -1.0885 -0.67967 -3.44647 -0.530323 -1.3381 1.55305 0.168844 -0.359256 0.906475 -1.55592 -1.20593 0.926112 -0.638231 -0.624109 0.347908 0.53199 0.219319 1.76785 1.20305 -0.362223 -1.48325 0.185776 -0.435564 2.65904 0.208445 -0.393958 -0.112638 0.688265 0.361789 -1.2785 0.267865 0.0305107 0.813992 -1.6165 -0.161953 -1.30058 0.349372 -0.770632 -0.430247 0.372709 -0.547698 0.29097 0.593858 0.154135 0.0858143 -1.22915 0.545864 -0.744002 -1.62411 -1.13456 -0.562971 -1.05943 0.239364 -1.22662 0.573802 -0.151394 -0.497137 0.312085 -1.79194 -0.240038 0.123297 -0.33864 1.1251 1.02722 0.0866948 -0.393516 0.515913 -1.37433 -1.32058 0.960616 -0.189253 -0.507258 -0.879433 1.05281 0.750777 -1.14093 -1.58881 0.828033 0.557289 -0.995111 -0.320587 0.502469 -0.562178 0.547433 0.082696 0.102659 1.92434 1.03693 -1.02559 -0.0513734 0.0833001 0.687618 0.695676 -0.503367 0.703796 -0.53885 -0.993813 0.389169 0.132946 0.582233 0.190683 0.360938 -0.715671 -1.21729 1.12192 0.7033 1.63879 -0.143114 -0.390649 -0.91197 -2.18679 -1.03601 0.13607 2.04526 -1.16886 0.302548 -0.353165 0.981762 -0.139715 2.53723 -1.84446 0.559133 1.77054 -0.0698355 -1.01448 0.738905 -0.709327 0.557099 -0.687729 1.07361 -0.942333 0.45747 0.794688 -0.053986 -1.68715 0.357072 0.442031 -0.0211073 1.02108 -1.81563 1.5428 -0.509314 1.05681 -1.03437 -1.52575 -1.90626 -0.494308 1.15973 -1.33495 0.222655 -0.923321 0.432569 -1.4442 -0.922072 -0.480263 -0.499638 0.00444788 0.400544 0.931988 -2.18081 0.265077 -1.04271 -0.161122 2.61321 -0.472049 0.12383 0.0583536 -1.82864 -2.02374 -0.361368 -1.19899 0.227128 -0.62652 1.10657 -0.168243 -0.479929 0.803531 -1.19273 0.12114 -1.79376 0.207237 -1.25286 1.06983 3.00451 -1.19282 1.01467 -0.966258 1.08748 0.165235 -1.23829 0.35249 0.163784 0.756179 -1.07399 0.0021685 -0.779272 -0.139761 1.22552 0.148293 0.482054 -1.98782 -1.87446 1.22291 -0.0554584 -0.40354 -0.293327 -0.132105 -1.80354 0.304205 0.548392 -0.309233 -2.15462 -0.024259 -1.32904 -0.0821516 0.19791 1.11326 -0.558832 -1.21108 0.765348 0.984435 -0.333961 0.555256 -1.26042 0.0137984 -1.77084 1.15675 0.963491 -0.555884 -0.78971 1.83159 0.301174 -0.388761 -1.86074 -1.05369 -0.318978 0.971683 0.386597 -0.428425 0.403075 -2.46778 0.77609</Parameters>
      </PerceptronLayer>
      <PerceptronLayer>
         <InputsNumber>64</InputsNumber>
         <NeuronsNumber>1</NeuronsNumber>
         <ActivationFunction>HyperbolicTangent</ActivationFunction>
         <Parameters>1.76574 -1.27798 1.02864 1.70301 0.379227 1.21539 0.19659 1.52565 0.14806 0.137815 -1.53005 0.0975239 -0.968642 0.554441 0.853157 -0.425408 -0.112341 0.801717 0.164588 -0.114072 -0.622579 0.803148 -1.16433 1.33353 0.828683 -0.180756 -0.0998678 -1.11311 -0.173371 -0.840295 0.89002 -0.707747 -1.50683 1.45611 0.487084 -0.331757 -0.518743 1.06642 1.32441 -0.45523 -0.975856 -0.0520569 0.459361 -2.04602 -1.04831 1.10699 -0.0887645 1.83943 0.185912 -1.20528 -1.1522 0.757976 -1.3844 -1.15694 -1.64687 -0.754159 -0.39547 -1.28831 0.98333 0.912082 1.86497 0.282991 -0.684453 -1.18644 0.0511233</Parameters>
      </PerceptronLayer>
      <UnscalingLayer>
         <UnscalingNeuronsNumber>1</UnscalingNeuronsNumber>
         <Descriptives Index="1">
            <Minimum>-1</Minimum>
            <Maximum>1</Maximum>
            <Mean>0</Mean>
            <StandardDeviation>1</StandardDeviation>
         </Descriptives>
         <UnscalingMethod>MinimumMaximum</UnscalingMethod>
      </UnscalingLayer>
   </Layers>
   <Outputs>
      <OutputsNumber>0</OutputsNumber>
   </Outputs>
</NeuralNetwork>
